{"learner":{"attributes":{"scikit_learn":"{\"_estimator_type\": \"regressor\"}"},"feature_names":["return_lag_1","return_lag_2","return_lag_3"],"feature_types":["float","float","float"],"gradient_booster":{"model":{"gbtree_model_param":{"num_parallel_tree":"1","num_trees":"50"},"iteration_indptr":[0,1,2,3,4,5,6,7,8,9,10,11,12,13,14,15,16,17,18,19,20,21,22,23,24,25,26,27,28,29,30,31,32,33,34,35,36,37,38,39,40,41,42,43,44,45,46,47,48,49,50],"tree_info":[0,0,0,0,0,0,0,0,0,0,0,0,0,0,0,0,0,0,0,0,0,0,0,0,0,0,0,0,0,0,0,0,0,0,0,0,0,0,0,0,0,0,0,0,0,0,0,0,0,0],"trees":[{"base_weights":[9.4662537E-4,1.4454571E-3,-2.69094E-2,7.892475E-5,2.6236882E-3,-3.8433818E-3,-1.461287E-3],"categories":[],"categories_nodes":[],"categories_segments":[],"categories_sizes":[],"default_left":[0,0,0,0,0,0,0],"id":0,"left_children":[1,3,5,-1,-1,-1,-1],"loss_changes":[5.5276062E-3,6.3076895E-3,4.3034414E-4,0E0,0E0,0E0,0E0],"parents":[2147483647,0,0,1,1,2,2],"right_children":[2,4,6,-1,-1,-1,-1],"split_conditions":[6.489263E-2,4.663159E-2,-6.3973744E-3,7.892475E-5,2.6236882E-3,-3.8433818E-3,-1.461287E-3],"split_indices":[0,0,2,0,0,0,0],"split_type":[0,0,0,0,0,0,0],"sum_hessian":[3.94E2,3.88E2,6E0,3.79E2,9E0,2E0,4E0],"tree_param":{"num_deleted":"0","num_feature":"3","num_nodes":"7","size_leaf_vector":"1"}},{"base_weights":[2.637224E-4,8.3604705E-4,-2.1682683E-2,2.2810817E-5,2.348936E-3,-2.4233775E-3,-7.652214E-4],"categories":[],"categories_nodes":[],"categories_segments":[],"categories_sizes":[],"default_left":[0,0,0,0,0,0,0],"id":1,"left_children":[1,3,5,-1,-1,-1,-1],"loss_changes":[4.9418313E-3,5.2692518E-3,1.7248793E-4,0E0,0E0,0E0,0E0],"parents":[2147483647,0,0,1,1,2,2],"right_children":[2,4,6,-1,-1,-1,-1],"split_conditions":[6.489263E-2,4.7008738E-2,9.53409E-2,2.2810817E-5,2.348936E-3,-2.4233775E-3,-7.652214E-4],"split_indices":[0,0,0,0,0,0,0],"split_type":[0,0,0,0,0,0,0],"sum_hessian":[3.91E2,3.82E2,9E0,3.73E2,9E0,7E0,2E0],"tree_param":{"num_deleted":"0","num_feature":"3","num_nodes":"7","size_leaf_vector":"1"}},{"base_weights":[-3.520319E-4,1.9306317E-2,-6.0642074E-4,2.5206848E-4,2.965651E-3,1.9012241E-3,-8.6229185E-5],"categories":[],"categories_nodes":[],"categories_segments":[],"categories_sizes":[],"default_left":[0,0,0,0,0,0,0],"id":2,"left_children":[1,3,5,-1,-1,-1,-1],"loss_changes":[1.9570442E-3,7.939179E-4,1.9490358E-3,0E0,0E0,0E0,0E0],"parents":[2147483647,0,0,1,1,2,2],"right_children":[2,4,6,-1,-1,-1,-1],"split_conditions":[-5.8996983E-2,-6.625618E-2,-6.625618E-2,2.5206848E-4,2.965651E-3,1.9012241E-3,-8.6229185E-5],"split_indices":[1,1,2,0,0,0,0],"split_type":[0,0,0,0,0,0,0],"sum_hessian":[3.88E2,4E0,3.84E2,2E0,2E0,4E0,3.8E2],"tree_param":{"num_deleted":"0","num_feature":"3","num_nodes":"7","size_leaf_vector":"1"}},{"base_weights":[8.81677E-5,7.276895E-4,-2.492595E-2,1.5325615E-5,2.5092165E-3,-3.5962854E-3,-1.1574207E-3],"categories":[],"categories_nodes":[],"categories_segments":[],"categories_sizes":[],"default_left":[0,0,0,0,0,0,0],"id":3,"left_children":[1,3,5,-1,-1,-1,-1],"loss_changes":[6.4169685E-3,5.4685E-3,1.0573776E-3,0E0,0E0,0E0,0E0],"parents":[2147483647,0,0,1,1,2,2],"right_children":[2,4,6,-1,-1,-1,-1],"split_conditions":[6.489263E-2,4.7008738E-2,-3.9592977E-3,1.5325615E-5,2.5092165E-3,-3.5962854E-3,-1.1574207E-3],"split_indices":[0,0,2,0,0,0,0],"split_type":[0,0,0,0,0,0,0],"sum_hessian":[3.99E2,3.9E2,9E0,3.82E2,8E0,4E0,5E0],"tree_param":{"num_deleted":"0","num_feature":"3","num_nodes":"7","size_leaf_vector":"1"}},{"base_weights":[-1.788982E-3,2.7508162E-2,-2.1436308E-3,1.110113E-3,4.6568145E-3,2.939456E-3,-2.4498263E-4],"categories":[],"categories_nodes":[],"categories_segments":[],"categories_sizes":[],"default_left":[0,0,0,0,0,0,0],"id":4,"left_children":[1,3,5,-1,-1,-1,-1],"loss_changes":[4.3397294E-3,1.0466296E-3,4.0120054E-3,0E0,0E0,0E0,0E0],"parents":[2147483647,0,0,1,1,2,2],"right_children":[2,4,6,-1,-1,-1,-1],"split_conditions":[-6.625618E-2,2.0561097E-2,-6.625618E-2,1.110113E-3,4.6568145E-3,2.939456E-3,-2.4498263E-4],"split_indices":[0,2,2,0,0,0,0],"split_type":[0,0,0,0,0,0,0],"sum_hessian":[4.11E2,4E0,4.07E2,3E0,1E0,3E0,4.04E2],"tree_param":{"num_deleted":"0","num_feature":"3","num_nodes":"7","size_leaf_vector":"1"}},{"base_weights":[1.7565022E-4,-2.7093294E-4,1.2072825E-2,5.3205313E-5,-1.4788256E-3,-1.656134E-3,1.5301076E-3],"categories":[],"categories_nodes":[],"categories_segments":[],"categories_sizes":[],"default_left":[0,0,0,0,0,0,0],"id":5,"left_children":[1,3,5,-1,-1,-1,-1],"loss_changes":[2.2028855E-3,4.6707517E-3,1.6399799E-3,0E0,0E0,0E0,0E0],"parents":[2147483647,0,0,1,1,2,2],"right_children":[2,4,6,-1,-1,-1,-1],"split_conditions":[5.112087E-2,3.8083807E-2,-7.674783E-2,5.3205313E-5,-1.4788256E-3,-1.656134E-3,1.5301076E-3],"split_indices":[1,1,2,0,0,0,0],"split_type":[0,0,0,0,0,0,0],"sum_hessian":[4.13E2,3.99E2,1.4E1,3.79E2,2E1,1E0,1.3E1],"tree_param":{"num_deleted":"0","num_feature":"3","num_nodes":"7","size_leaf_vector":"1"}},{"base_weights":[2.1942025E-4,8.907545E-3,-4.0838402E-4,1.7775269E-4,2.0850825E-3,-1.1254831E-3,1.7164652E-5],"categories":[],"categories_nodes":[],"categories_segments":[],"categories_sizes":[],"default_left":[0,0,0,0,0,0,0],"id":6,"left_children":[1,3,5,-1,-1,-1,-1],"loss_changes":[2.1854145E-3,2.2621432E-3,2.3548666E-3,0E0,0E0,0E0,0E0],"parents":[2147483647,0,0,1,1,2,2],"right_children":[2,4,6,-1,-1,-1,-1],"split_conditions":[-3.6053203E-2,-4.1796938E-2,-2.6488222E-2,1.7775269E-4,2.0850825E-3,-1.1254831E-3,1.7164652E-5],"split_indices":[1,1,1,0,0,0,0],"split_type":[0,0,0,0,0,0,0],"sum_hessian":[3.99E2,2.6E1,3.73E2,1.7E1,9E0,1.8E1,3.55E2],"tree_param":{"num_deleted":"0","num_feature":"3","num_nodes":"7","size_leaf_vector":"1"}},{"base_weights":[-2.1596874E-4,4.7261413E-4,-2.5047917E-2,2.2001674E-3,2.9780547E-6,-2.8285123E-3,-6.9869915E-4],"categories":[],"categories_nodes":[],"categories_segments":[],"categories_sizes":[],"default_left":[0,0,0,0,0,0,0],"id":7,"left_children":[1,3,5,-1,-1,-1,-1],"loss_changes":[6.971071E-3,3.7842598E-3,4.4550886E-4,0E0,0E0,0E0,0E0],"parents":[2147483647,0,0,1,1,2,2],"right_children":[2,4,6,-1,-1,-1,-1],"split_conditions":[6.489263E-2,-5.8996983E-2,2.0561097E-2,2.2001674E-3,2.9780547E-6,-2.8285123E-3,-6.9869915E-4],"split_indices":[0,0,1,0,0,0,0],"split_type":[0,0,0,0,0,0,0],"sum_hessian":[4.06E2,3.96E2,1E1,7E0,3.89E2,8E0,2E0],"tree_param":{"num_deleted":"0","num_feature":"3","num_nodes":"7","size_leaf_vector":"1"}},{"base_weights":[-3.7063155E-4,1.0452675E-4,-2.4082217E-2,-4.0790444E-5,1.8263039E-3,-7.1623776E-4,-2.8528434E-3],"categories":[],"categories_nodes":[],"categories_segments":[],"categories_sizes":[],"default_left":[0,0,0,0,0,0,0],"id":8,"left_children":[1,3,5,-1,-1,-1,-1],"loss_changes":[4.588087E-3,3.729445E-3,3.975029E-4,0E0,0E0,0E0,0E0],"parents":[2147483647,0,0,1,1,2,2],"right_children":[2,4,6,-1,-1,-1,-1],"split_conditions":[6.489263E-2,4.7008738E-2,-1.3228926E-2,-4.0790444E-5,1.8263039E-3,-7.1623776E-4,-2.8528434E-3],"split_indices":[0,0,2,0,0,0,0],"split_type":[0,0,0,0,0,0,0],"sum_hessian":[4.06E2,3.99E2,7E0,3.89E2,1E1,2E0,5E0],"tree_param":{"num_deleted":"0","num_feature":"3","num_nodes":"7","size_leaf_vector":"1"}},{"base_weights":[1.1914746E-3,-1.0105367E-2,1.5307944E-3,1.2505715E-3,-2.804267E-3,2.6348091E-3,1.3379449E-4],"categories":[],"categories_nodes":[],"categories_segments":[],"categories_sizes":[],"default_left":[0,0,0,0,0,0,0],"id":9,"left_children":[1,3,5,-1,-1,-1,-1],"loss_changes":[1.5755985E-3,5.2176756E-3,1.8600044E-3,0E0,0E0,0E0,0E0],"parents":[2147483647,0,0,1,1,2,2],"right_children":[2,4,6,-1,-1,-1,-1],"split_conditions":[-5.001096E-2,-6.042056E-2,-4.9949214E-2,1.2505715E-3,-2.804267E-3,2.6348091E-3,1.3379449E-4],"split_indices":[2,2,2,0,0,0,0],"split_type":[0,0,0,0,0,0,0],"sum_hessian":[4.06E2,1.1E1,3.95E2,5E0,6E0,2E0,3.93E2],"tree_param":{"num_deleted":"0","num_feature":"3","num_nodes":"7","size_leaf_vector":"1"}},{"base_weights":[8.533613E-4,-2.6305409E-3,2.530515E-3,2.95497E-5,-9.6604193E-4,3.643914E-5,5.7195005E-4],"categories":[],"categories_nodes":[],"categories_segments":[],"categories_sizes":[],"default_left":[0,0,0,0,0,0,0],"id":10,"left_children":[1,3,5,-1,-1,-1,-1],"loss_changes":[2.443204E-3,2.8003321E-3,1.9458977E-3,0E0,0E0,0E0,0E0],"parents":[2147483647,0,0,1,1,2,2],"right_children":[2,4,6,-1,-1,-1,-1],"split_conditions":[-7.048028E-3,-1.3014012E-2,4.941742E-3,2.95497E-5,-9.6604193E-4,3.643914E-5,5.7195005E-4],"split_indices":[1,1,2,0,0,0,0],"split_type":[0,0,0,0,0,0,0],"sum_hessian":[4.16E2,1.35E2,2.81E2,9.6E1,3.9E1,1.68E2,1.13E2],"tree_param":{"num_deleted":"0","num_feature":"3","num_nodes":"7","size_leaf_vector":"1"}},{"base_weights":[1.39848E-3,9.101446E-3,7.887005E-4,3.1837386E-5,1.566885E-3,-1.7720376E-3,1.2651172E-4],"categories":[],"categories_nodes":[],"categories_segments":[],"categories_sizes":[],"default_left":[0,0,0,0,0,0,0],"id":11,"left_children":[1,3,5,-1,-1,-1,-1],"loss_changes":[1.7918148E-3,1.6101073E-3,3.1616373E-3,0E0,0E0,0E0,0E0],"parents":[2147483647,0,0,1,1,2,2],"right_children":[2,4,6,-1,-1,-1,-1],"split_conditions":[-3.6053203E-2,-6.686086E-3,-3.1421844E-2,3.1837386E-5,1.566885E-3,-1.7720376E-3,1.2651172E-4],"split_indices":[1,2,1,0,0,0,0],"split_type":[0,0,0,0,0,0,0],"sum_hessian":[3.82E2,2.7E1,3.55E2,1.2E1,1.5E1,8E0,3.47E2],"tree_param":{"num_deleted":"0","num_feature":"3","num_nodes":"7","size_leaf_vector":"1"}},{"base_weights":[2.3606032E-4,6.4278743E-4,-1.992644E-2,1.1088063E-5,1.5148325E-3,-3.1461858E-3,-5.255564E-5],"categories":[],"categories_nodes":[],"categories_segments":[],"categories_sizes":[],"default_left":[0,0,0,0,0,0,0],"id":12,"left_children":[1,3,5,-1,-1,-1,-1],"loss_changes":[3.3176646E-3,3.0536957E-3,1.7738438E-3,0E0,0E0,0E0,0E0],"parents":[2147483647,0,0,1,1,2,2],"right_children":[2,4,6,-1,-1,-1,-1],"split_conditions":[8.1309095E-2,4.7008738E-2,2.0561097E-2,1.1088063E-5,1.5148325E-3,-3.1461858E-3,-5.255564E-5],"split_indices":[0,0,1,0,0,0,0],"split_type":[0,0,0,0,0,0,0],"sum_hessian":[4.02E2,3.95E2,7E0,3.82E2,1.3E1,4E0,3E0],"tree_param":{"num_deleted":"0","num_feature":"3","num_nodes":"7","size_leaf_vector":"1"}},{"base_weights":[7.7307974E-5,7.673073E-4,-6.2618256E-3,2.4002524E-5,4.618538E-3,-3.8189625E-3,-3.4272362E-4],"categories":[],"categories_nodes":[],"categories_segments":[],"categories_sizes":[],"default_left":[0,0,0,0,0,0,0],"id":13,"left_children":[1,3,5,-1,-1,-1,-1],"loss_changes":[1.6931677E-3,8.346813E-3,3.3081984E-3,0E0,0E0,0E0,0E0],"parents":[2147483647,0,0,1,1,2,2],"right_children":[2,4,6,-1,-1,-1,-1],"split_conditions":[3.7133142E-2,3.630049E-2,-5.8996983E-2,2.4002524E-5,4.618538E-3,-3.8189625E-3,-3.4272362E-4],"split_indices":[1,1,2,0,0,0,0],"split_type":[0,0,0,0,0,0,0],"sum_hessian":[3.85E2,3.48E2,3.7E1,3.45E2,3E0,2E0,3.5E1],"tree_param":{"num_deleted":"0","num_feature":"3","num_nodes":"7","size_leaf_vector":"1"}},{"base_weights":[2.2009305E-4,3.0253867E-2,-9.663113E-5,1.1365033E-3,4.346018E-3,-1.6880007E-3,3.0967807E-5],"categories":[],"categories_nodes":[],"categories_segments":[],"categories_sizes":[],"default_left":[0,0,0,0,0,0,0],"id":14,"left_children":[1,3,5,-1,-1,-1,-1],"loss_changes":[3.646181E-3,5.0388137E-4,2.5965387E-3,0E0,0E0,0E0,0E0],"parents":[2147483647,0,0,1,1,2,2],"right_children":[2,4,6,-1,-1,-1,-1],"split_conditions":[-6.625618E-2,2.0561097E-2,-5.5870358E-2,1.1365033E-3,4.346018E-3,-1.6880007E-3,3.0967807E-5],"split_indices":[0,2,2,0,0,0,0],"split_type":[0,0,0,0,0,0,0],"sum_hessian":[3.82E2,3E0,3.79E2,2E0,1E0,8E0,3.71E2],"tree_param":{"num_deleted":"0","num_feature":"3","num_nodes":"7","size_leaf_vector":"1"}},{"base_weights":[5.0630475E-5,6.0288905E-4,-5.41362E-3,-4.372458E-6,2.6256756E-3,-3.4518314E-3,-2.764257E-4],"categories":[],"categories_nodes":[],"categories_segments":[],"categories_sizes":[],"default_left":[0,0,0,0,0,0,0],"id":15,"left_children":[1,3,5,-1,-1,-1,-1],"loss_changes":[1.2163708E-3,6.0724067E-3,2.7576117E-3,0E0,0E0,0E0,0E0],"parents":[2147483647,0,0,1,1,2,2],"right_children":[2,4,6,-1,-1,-1,-1],"split_conditions":[3.8083807E-2,3.2577816E-2,-5.8996983E-2,-4.372458E-6,2.6256756E-3,-3.4518314E-3,-2.764257E-4],"split_indices":[1,1,2,0,0,0,0],"split_type":[0,0,0,0,0,0,0],"sum_hessian":[4.01E2,3.65E2,3.6E1,3.57E2,8E0,2E0,3.4E1],"tree_param":{"num_deleted":"0","num_feature":"3","num_nodes":"7","size_leaf_vector":"1"}},{"base_weights":[-5.070412E-4,-9.195607E-5,-1.4309694E-2,-5.8444428E-5,1.5899886E-3,-1.957348E-3,-2.0469854E-5],"categories":[],"categories_nodes":[],"categories_segments":[],"categories_sizes":[],"default_left":[0,0,0,0,0,0,0],"id":16,"left_children":[1,3,5,-1,-1,-1,-1],"loss_changes":[2.158621E-3,2.8997087E-3,8.126958E-4,0E0,0E0,0E0,0E0],"parents":[2147483647,0,0,1,1,2,2],"right_children":[2,4,6,-1,-1,-1,-1],"split_conditions":[6.489263E-2,4.7008738E-2,2.0561097E-2,-5.8444428E-5,1.5899886E-3,-1.957348E-3,-2.0469854E-5],"split_indices":[0,0,1,0,0,0,0],"split_type":[0,0,0,0,0,0,0],"sum_hessian":[3.76E2,3.66E2,1E1,3.56E2,1E1,7E0,3E0],"tree_param":{"num_deleted":"0","num_feature":"3","num_nodes":"7","size_leaf_vector":"1"}},{"base_weights":[-9.693198E-4,-1.6174093E-2,-4.8018215E-4,-1.291636E-4,-2.3453867E-3,-2.5219106E-4,1.918379E-4],"categories":[],"categories_nodes":[],"categories_segments":[],"categories_sizes":[],"default_left":[0,0,0,0,0,0,0],"id":17,"left_children":[1,3,5,-1,-1,-1,-1],"loss_changes":[2.863003E-3,1.2697973E-3,1.841292E-3,0E0,0E0,0E0,0E0],"parents":[2147483647,0,0,1,1,2,2],"right_children":[2,4,6,-1,-1,-1,-1],"split_conditions":[-5.001096E-2,-6.042056E-2,3.7831478E-3,-1.291636E-4,-2.3453867E-3,-2.5219106E-4,1.918379E-4],"split_indices":[2,2,2,0,0,0,0],"split_type":[0,0,0,0,0,0,0],"sum_hessian":[3.85E2,1.1E1,3.74E2,4E0,7E0,2.02E2,1.72E2],"tree_param":{"num_deleted":"0","num_feature":"3","num_nodes":"7","size_leaf_vector":"1"}},{"base_weights":[-1.0756874E-4,2.739059E-2,-5.885176E-4,1.8214801E-3,4.1222665E-3,-1.1663229E-5,-1.5836423E-3],"categories":[],"categories_nodes":[],"categories_segments":[],"categories_sizes":[],"default_left":[0,0,0,0,0,0,0],"id":18,"left_children":[1,3,5,-1,-1,-1,-1],"loss_changes":[5.385554E-3,1.3757916E-4,2.876258E-3,0E0,0E0,0E0,0E0],"parents":[2147483647,0,0,1,1,2,2],"right_children":[2,4,6,-1,-1,-1,-1],"split_conditions":[-5.8996983E-2,2.5111793E-2,6.489263E-2,1.8214801E-3,4.1222665E-3,-1.1663229E-5,-1.5836423E-3],"split_indices":[0,2,0,0,0,0,0],"split_type":[0,0,0,0,0,0,0],"sum_hessian":[4.05E2,6E0,3.99E2,5E0,1E0,3.88E2,1.1E1],"tree_param":{"num_deleted":"0","num_feature":"3","num_nodes":"7","size_leaf_vector":"1"}},{"base_weights":[-1.6545679E-4,2.7543335E-4,-2.1527946E-2,-2.989661E-5,2.201763E-3,-9.508999E-4,-3.838986E-3],"categories":[],"categories_nodes":[],"categories_segments":[],"categories_sizes":[],"default_left":[0,0,0,0,0,0,0],"id":19,"left_children":[1,3,5,-1,-1,-1,-1],"loss_changes":[3.7262414E-3,4.8522004E-3,1.2562503E-3,0E0,0E0,0E0,0E0],"parents":[2147483647,0,0,1,1,2,2],"right_children":[2,4,6,-1,-1,-1,-1],"split_conditions":[6.489263E-2,4.7008738E-2,-9.486006E-3,-2.989661E-5,2.201763E-3,-9.508999E-4,-3.838986E-3],"split_indices":[0,0,1,0,0,0,0],"split_type":[0,0,0,0,0,0,0],"sum_hessian":[3.94E2,3.87E2,7E0,3.78E2,9E0,5E0,2E0],"tree_param":{"num_deleted":"0","num_feature":"3","num_nodes":"7","size_leaf_vector":"1"}},{"base_weights":[9.077235E-4,2.6796354E-2,7.112894E-4,1.0180525E-4,3.917648E-3,2.2274019E-4,-2.3837523E-4],"categories":[],"categories_nodes":[],"categories_segments":[],"categories_sizes":[],"default_left":[0,0,0,0,0,0,0],"id":20,"left_children":[1,3,5,-1,-1,-1,-1],"loss_changes":[2.025274E-3,9.1753225E-4,1.882282E-3,0E0,0E0,0E0,0E0],"parents":[2147483647,0,0,1,1,2,2],"right_children":[2,4,6,-1,-1,-1,-1],"split_conditions":[-7.674783E-2,2.0561097E-2,9.144139E-3,1.0180525E-4,3.917648E-3,2.2274019E-4,-2.3837523E-4],"split_indices":[0,2,2,0,0,0,0],"split_type":[0,0,0,0,0,0,0],"sum_hessian":[4.01E2,2E0,3.99E2,1E0,1E0,2.68E2,1.31E2],"tree_param":{"num_deleted":"0","num_feature":"3","num_nodes":"7","size_leaf_vector":"1"}},{"base_weights":[1.1492509E-4,2.5456537E-2,-7.400731E-5,3.7217655E-3,9.671496E-5,-2.1948703E-4,2.3874966E-4],"categories":[],"categories_nodes":[],"categories_segments":[],"categories_sizes":[],"default_left":[0,0,0,0,0,0,0],"id":21,"left_children":[1,3,5,-1,-1,-1,-1],"loss_changes":[1.9409637E-3,8.2807266E-4,2.1091066E-3,0E0,0E0,0E0,0E0],"parents":[2147483647,0,0,1,1,2,2],"right_children":[2,4,6,-1,-1,-1,-1],"split_conditions":[-7.674783E-2,-1.1298796E-2,2.1916153E-3,3.7217655E-3,9.671496E-5,-2.1948703E-4,2.3874966E-4],"split_indices":[0,1,1,0,0,0,0],"split_type":[0,0,0,0,0,0,0],"sum_hessian":[4.04E2,2E0,4.02E2,1E0,1E0,2.16E2,1.86E2],"tree_param":{"num_deleted":"0","num_feature":"3","num_nodes":"7","size_leaf_vector":"1"}},{"base_weights":[-4.403138E-4,-1.815444E-3,3.2522345E-3,6.3489267E-4,-2.7931875E-4,6.701874E-4,-4.3514586E-4],"categories":[],"categories_nodes":[],"categories_segments":[],"categories_sizes":[],"default_left":[0,0,0,0,0,0,0],"id":22,"left_children":[1,3,5,-1,-1,-1,-1],"loss_changes":[2.001454E-3,2.3087566E-3,2.8357725E-3,0E0,0E0,0E0,0E0],"parents":[2147483647,0,0,1,1,2,2],"right_children":[2,4,6,-1,-1,-1,-1],"split_conditions":[1.3118686E-2,-3.4805674E-2,3.7133142E-2,6.3489267E-4,-2.7931875E-4,6.701874E-4,-4.3514586E-4],"split_indices":[1,1,1,0,0,0,0],"split_type":[0,0,0,0,0,0,0],"sum_hessian":[3.92E2,2.86E2,1.06E2,3E1,2.56E2,7.3E1,3.3E1],"tree_param":{"num_deleted":"0","num_feature":"3","num_nodes":"7","size_leaf_vector":"1"}},{"base_weights":[-1.7502603E-4,1.56219425E-2,-3.7009985E-4,-1.2663039E-3,3.8699612E-3,-1.8517195E-3,-4.999994E-6],"categories":[],"categories_nodes":[],"categories_segments":[],"categories_sizes":[],"default_left":[0,0,0,0,0,0,0],"id":23,"left_children":[1,3,5,-1,-1,-1,-1],"loss_changes":[1.2630642E-3,3.753812E-3,2.3458626E-3,0E0,0E0,0E0,0E0],"parents":[2147483647,0,0,1,1,2,2],"right_children":[2,4,6,-1,-1,-1,-1],"split_conditions":[-6.625618E-2,-7.674783E-2,-5.5870358E-2,-1.2663039E-3,3.8699612E-3,-1.8517195E-3,-4.999994E-6],"split_indices":[2,2,2,0,0,0,0],"split_type":[0,0,0,0,0,0,0],"sum_hessian":[4.07E2,4E0,4.03E2,2E0,2E0,6E0,3.97E2],"tree_param":{"num_deleted":"0","num_feature":"3","num_nodes":"7","size_leaf_vector":"1"}},{"base_weights":[1.1634614E-3,2.0654013E-2,7.7366515E-4,1.3462034E-3,3.5498932E-3,-1.6300513E-3,1.20505625E-4],"categories":[],"categories_nodes":[],"categories_segments":[],"categories_sizes":[],"default_left":[0,0,0,0,0,0,0],"id":24,"left_children":[1,3,5,-1,-1,-1,-1],"loss_changes":[3.0989314E-3,3.7622708E-4,2.9879995E-3,0E0,0E0,0E0,0E0],"parents":[2147483647,0,0,1,1,2,2],"right_children":[2,4,6,-1,-1,-1,-1],"split_conditions":[-5.8996983E-2,2.5111793E-2,-4.839572E-2,1.3462034E-3,3.5498932E-3,-1.6300513E-3,1.20505625E-4],"split_indices":[0,2,0,0,0,0,0],"split_type":[0,0,0,0,0,0,0],"sum_hessian":[4.09E2,7E0,4.02E2,6E0,1E0,9E0,3.93E2],"tree_param":{"num_deleted":"0","num_feature":"3","num_nodes":"7","size_leaf_vector":"1"}},{"base_weights":[-7.1748276E-4,2.8898407E-2,-9.3401887E-4,-6.567215E-4,4.9914825E-3,-8.7992504E-4,-2.889938E-6],"categories":[],"categories_nodes":[],"categories_segments":[],"categories_sizes":[],"default_left":[0,0,0,0,0,0,0],"id":25,"left_children":[1,3,5,-1,-1,-1,-1],"loss_changes":[2.6498714E-3,2.5638824E-3,2.8971683E-3,0E0,0E0,0E0,0E0],"parents":[2147483647,0,0,1,1,2,2],"right_children":[2,4,6,-1,-1,-1,-1],"split_conditions":[-6.625618E-2,1.2797501E-2,-2.602438E-2,-6.567215E-4,4.9914825E-3,-8.7992504E-4,-2.889938E-6],"split_indices":[2,1,2,0,0,0,0],"split_type":[0,0,0,0,0,0,0],"sum_hessian":[4.08E2,2E0,4.06E2,1E0,1E0,4.1E1,3.65E2],"tree_param":{"num_deleted":"0","num_feature":"3","num_nodes":"7","size_leaf_vector":"1"}},{"base_weights":[-1.5113512E-3,2.1162494E-3,-3.460951E-3,4.179874E-4,-8.954674E-4,3.3725433E-3,-3.7390366E-4],"categories":[],"categories_nodes":[],"categories_segments":[],"categories_sizes":[],"default_left":[0,0,0,0,0,0,0],"id":26,"left_children":[1,3,5,-1,-1,-1,-1],"loss_changes":[2.7867653E-3,3.1902092E-3,2.7733957E-3,0E0,0E0,0E0,0E0],"parents":[2147483647,0,0,1,1,2,2],"right_children":[2,4,6,-1,-1,-1,-1],"split_conditions":[-6.43388E-3,2.4400357E-2,-7.674783E-2,4.179874E-4,-8.954674E-4,3.3725433E-3,-3.7390366E-4],"split_indices":[2,0,0,0,0,0,0],"split_type":[0,0,0,0,0,0,0],"sum_hessian":[3.92E2,1.37E2,2.55E2,1.16E2,2.1E1,1E0,2.54E2],"tree_param":{"num_deleted":"0","num_feature":"3","num_nodes":"7","size_leaf_vector":"1"}},{"base_weights":[-2.813181E-6,1.8926732E-4,-1.95463E-2,2.1399013E-3,-2.1198634E-6,-3.9945668E-4,-3.310075E-3],"categories":[],"categories_nodes":[],"categories_segments":[],"categories_sizes":[],"default_left":[0,0,0,0,0,0,0],"id":27,"left_children":[1,3,5,-1,-1,-1,-1],"loss_changes":[1.5428078E-3,1.8172727E-3,7.109577E-4,0E0,0E0,0E0,0E0],"parents":[2147483647,0,0,1,1,2,2],"right_children":[2,4,6,-1,-1,-1,-1],"split_conditions":[9.458295E-2,-6.042056E-2,-1.5524758E-2,2.1399013E-3,-2.1198634E-6,-3.9945668E-4,-3.310075E-3],"split_indices":[0,1,1,0,0,0,0],"split_type":[0,0,0,0,0,0,0],"sum_hessian":[4.09E2,4.06E2,3E0,3E0,4.03E2,2E0,1E0],"tree_param":{"num_deleted":"0","num_feature":"3","num_nodes":"7","size_leaf_vector":"1"}},{"base_weights":[1.3000136E-3,-4.480335E-3,1.953178E-3,-8.240725E-4,2.349054E-3,8.6740265E-4,8.634587E-5],"categories":[],"categories_nodes":[],"categories_segments":[],"categories_sizes":[],"default_left":[0,0,0,0,0,0,0],"id":28,"left_children":[1,3,5,-1,-1,-1,-1],"loss_changes":[1.4849787E-3,4.4008344E-3,2.570502E-3,0E0,0E0,0E0,0E0],"parents":[2147483647,0,0,1,1,2,2],"right_children":[2,4,6,-1,-1,-1,-1],"split_conditions":[-3.0841395E-2,2.1651657E-2,-2.1643303E-2,-8.240725E-4,2.349054E-3,8.6740265E-4,8.634587E-5],"split_indices":[0,2,2,0,0,0,0],"split_type":[0,0,0,0,0,0,0],"sum_hessian":[3.9E2,3.9E1,3.51E2,3.5E1,4E0,4.8E1,3.03E2],"tree_param":{"num_deleted":"0","num_feature":"3","num_nodes":"7","size_leaf_vector":"1"}},{"base_weights":[9.53537E-5,-2.7870398E-4,1.2275454E-2,3.0865695E-3,-4.3770422E-5,6.362801E-4,3.8657316E-3],"categories":[],"categories_nodes":[],"categories_segments":[],"categories_sizes":[],"default_left":[0,0,0,0,0,0,0],"id":29,"left_children":[1,3,5,-1,-1,-1,-1],"loss_changes":[1.8349572E-3,1.9497288E-3,1.6258724E-3,0E0,0E0,0E0,0E0],"parents":[2147483647,0,0,1,1,2,2],"right_children":[2,4,6,-1,-1,-1,-1],"split_conditions":[5.112087E-2,-7.674783E-2,1.5272276E-2,3.0865695E-3,-4.3770422E-5,6.362801E-4,3.8657316E-3],"split_indices":[1,0,0,0,0,0,0],"split_type":[0,0,0,0,0,0,0],"sum_hessian":[4.01E2,3.9E2,1.1E1,1E0,3.89E2,1E1,1E0],"tree_param":{"num_deleted":"0","num_feature":"3","num_nodes":"7","size_leaf_vector":"1"}},{"base_weights":[6.473713E-4,-1.6412379E-3,3.1460717E-3,1.7752845E-5,-9.186794E-4,1.0776238E-4,8.589563E-4],"categories":[],"categories_nodes":[],"categories_segments":[],"categories_sizes":[],"default_left":[0,0,0,0,0,0,0],"id":30,"left_children":[1,3,5,-1,-1,-1,-1],"loss_changes":[2.3097384E-3,2.897311E-3,2.1638423E-3,0E0,0E0,0E0,0E0],"parents":[2147483647,0,0,1,1,2,2],"right_children":[2,4,6,-1,-1,-1,-1],"split_conditions":[1.9640012E-3,2.2565393E-2,1.0855241E-2,1.7752845E-5,-9.186794E-4,1.0776238E-4,8.589563E-4],"split_indices":[1,0,0,0,0,0,0],"split_type":[0,0,0,0,0,0,0],"sum_hessian":[4.02E2,2.1E2,1.92E2,1.7E2,4E1,1.4E2,5.2E1],"tree_param":{"num_deleted":"0","num_feature":"3","num_nodes":"7","size_leaf_vector":"1"}},{"base_weights":[-9.162183E-5,2.184573E-3,-2.345273E-3,2.0347429E-3,1.8122546E-4,-1.4528888E-3,-7.346061E-5],"categories":[],"categories_nodes":[],"categories_segments":[],"categories_sizes":[],"default_left":[0,0,0,0,0,0,0],"id":31,"left_children":[1,3,5,-1,-1,-1,-1],"loss_changes":[2.1031909E-3,1.3426477E-3,4.0318184E-3,0E0,0E0,0E0,0E0],"parents":[2147483647,0,0,1,1,2,2],"right_children":[2,4,6,-1,-1,-1,-1],"split_conditions":[7.079101E-4,-6.625618E-2,2.7755192E-3,2.0347429E-3,1.8122546E-4,-1.4528888E-3,-7.346061E-5],"split_indices":[0,0,0,0,0,0,0],"split_type":[0,0,0,0,0,0,0],"sum_hessian":[4.08E2,2.03E2,2.05E2,3E0,2E2,2.3E1,1.82E2],"tree_param":{"num_deleted":"0","num_feature":"3","num_nodes":"7","size_leaf_vector":"1"}},{"base_weights":[-7.4982503E-4,1.6736845E-3,-1.8744986E-3,3.403131E-5,2.1465046E-3,-1.0818801E-3,-2.4719167E-5],"categories":[],"categories_nodes":[],"categories_segments":[],"categories_sizes":[],"default_left":[0,0,0,0,0,0,0],"id":32,"left_children":[1,3,5,-1,-1,-1,-1],"loss_changes":[1.0906744E-3,3.3441274E-3,3.9708745E-3,0E0,0E0,0E0,0E0],"parents":[2147483647,0,0,1,1,2,2],"right_children":[2,4,6,-1,-1,-1,-1],"split_conditions":[-7.834658E-3,-8.630663E-3,-2.2858637E-3,3.403131E-5,2.1465046E-3,-1.0818801E-3,-2.4719167E-5],"split_indices":[2,2,2,0,0,0,0],"split_type":[0,0,0,0,0,0,0],"sum_hessian":[3.98E2,1.26E2,2.72E2,1.19E2,7E0,4.1E1,2.31E2],"tree_param":{"num_deleted":"0","num_feature":"3","num_nodes":"7","size_leaf_vector":"1"}},{"base_weights":[-1.6311572E-4,-8.610347E-4,3.991111E-3,2.8308523E-3,-1.0281221E-4,1.2991516E-3,-3.2210597E-4],"categories":[],"categories_nodes":[],"categories_segments":[],"categories_sizes":[],"default_left":[0,0,0,0,0,0,0],"id":33,"left_children":[1,3,5,-1,-1,-1,-1],"loss_changes":[1.1689607E-3,1.7105886E-3,3.8067691E-3,0E0,0E0,0E0,0E0],"parents":[2147483647,0,0,1,1,2,2],"right_children":[2,4,6,-1,-1,-1,-1],"split_conditions":[2.7551275E-2,-7.674783E-2,-7.4401246E-3,2.8308523E-3,-1.0281221E-4,1.2991516E-3,-3.2210597E-4],"split_indices":[1,0,0,0,0,0,0],"split_type":[0,0,0,0,0,0,0],"sum_hessian":[4.01E2,3.44E2,5.7E1,1E0,3.43E2,2.5E1,3.2E1],"tree_param":{"num_deleted":"0","num_feature":"3","num_nodes":"7","size_leaf_vector":"1"}},{"base_weights":[7.1165204E-4,-4.5528007E-3,1.4239033E-3,7.077962E-4,-8.8659505E-4,2.0355575E-3,7.2694E-5],"categories":[],"categories_nodes":[],"categories_segments":[],"categories_sizes":[],"default_left":[0,0,0,0,0,0,0],"id":34,"left_children":[1,3,5,-1,-1,-1,-1],"loss_changes":[1.4463342E-3,2.3703533E-3,4.4581997E-3,0E0,0E0,0E0,0E0],"parents":[2147483647,0,0,1,1,2,2],"right_children":[2,4,6,-1,-1,-1,-1],"split_conditions":[-2.602438E-2,-1.7958798E-2,-2.1643303E-2,7.077962E-4,-8.8659505E-4,2.0355575E-3,7.2694E-5],"split_indices":[2,1,2,0,0,0,0],"split_type":[0,0,0,0,0,0,0],"sum_hessian":[3.83E2,4.5E1,3.38E2,1.2E1,3.3E1,1.1E1,3.27E2],"tree_param":{"num_deleted":"0","num_feature":"3","num_nodes":"7","size_leaf_vector":"1"}},{"base_weights":[1.70588E-4,-6.136429E-3,9.0708566E-4,-2.996689E-4,-3.5999722E-3,1.9402858E-3,2.8283825E-5],"categories":[],"categories_nodes":[],"categories_segments":[],"categories_sizes":[],"default_left":[0,0,0,0,0,0,0],"id":35,"left_children":[1,3,5,-1,-1,-1,-1],"loss_changes":[1.9100588E-3,3.9239284E-3,4.243417E-3,0E0,0E0,0E0,0E0],"parents":[2147483647,0,0,1,1,2,2],"right_children":[2,4,6,-1,-1,-1,-1],"split_conditions":[-3.0841395E-2,-3.1421844E-2,-2.4524743E-2,-2.996689E-4,-3.5999722E-3,1.9402858E-3,2.8283825E-5],"split_indices":[0,0,0,0,0,0,0],"split_type":[0,0,0,0,0,0,0],"sum_hessian":[4.09E2,4.2E1,3.67E2,3.9E1,3E0,1.1E1,3.56E2],"tree_param":{"num_deleted":"0","num_feature":"3","num_nodes":"7","size_leaf_vector":"1"}},{"base_weights":[1.5130691E-4,1.6011946E-2,-1.7112053E-4,1.0583199E-3,2.7006583E-3,-9.4608136E-4,7.04283E-5],"categories":[],"categories_nodes":[],"categories_segments":[],"categories_sizes":[],"default_left":[0,0,0,0,0,0,0],"id":36,"left_children":[1,3,5,-1,-1,-1,-1],"loss_changes":[2.0534159E-3,1.9168062E-4,3.2107616E-3,0E0,0E0,0E0,0E0],"parents":[2147483647,0,0,1,1,2,2],"right_children":[2,4,6,-1,-1,-1,-1],"split_conditions":[-5.8996983E-2,2.5111793E-2,-3.0841395E-2,1.0583199E-3,2.7006583E-3,-9.4608136E-4,7.04283E-5],"split_indices":[0,2,0,0,0,0,0],"split_type":[0,0,0,0,0,0,0],"sum_hessian":[4E2,7E0,3.93E2,6E0,1E0,3.3E1,3.6E2],"tree_param":{"num_deleted":"0","num_feature":"3","num_nodes":"7","size_leaf_vector":"1"}},{"base_weights":[-2.444153E-4,6.466934E-4,-6.49511E-3,-2.4795003E-5,7.8101986E-4,-1.4655106E-3,-3.532609E-4],"categories":[],"categories_nodes":[],"categories_segments":[],"categories_sizes":[],"default_left":[0,0,0,0,0,0,0],"id":37,"left_children":[1,3,5,-1,-1,-1,-1],"loss_changes":[2.2322198E-3,2.2514192E-3,1.156929E-3,0E0,0E0,0E0,0E0],"parents":[2147483647,0,0,1,1,2,2],"right_children":[2,4,6,-1,-1,-1,-1],"split_conditions":[3.0478772E-2,1.8176148E-2,-1.7895518E-2,-2.4795003E-5,7.8101986E-4,-1.4655106E-3,-3.532609E-4],"split_indices":[0,0,1,0,0,0,0],"split_type":[0,0,0,0,0,0,0],"sum_hessian":[3.99E2,3.5E2,4.9E1,3.12E2,3.8E1,1.2E1,3.7E1],"tree_param":{"num_deleted":"0","num_feature":"3","num_nodes":"7","size_leaf_vector":"1"}},{"base_weights":[9.439255E-4,8.660671E-3,3.3981382E-4,3.2645362E-4,1.7193934E-3,-8.3125615E-4,1.1507705E-4],"categories":[],"categories_nodes":[],"categories_segments":[],"categories_sizes":[],"default_left":[0,0,0,0,0,0,0],"id":38,"left_children":[1,3,5,-1,-1,-1,-1],"loss_changes":[1.8617675E-3,1.2792223E-3,2.6197787E-3,0E0,0E0,0E0,0E0],"parents":[2147483647,0,0,1,1,2,2],"right_children":[2,4,6,-1,-1,-1,-1],"split_conditions":[-3.4805674E-2,-4.1796938E-2,-2.1841384E-2,3.2645362E-4,1.7193934E-3,-8.3125615E-4,1.1507705E-4],"split_indices":[1,1,1,0,0,0,0],"split_type":[0,0,0,0,0,0,0],"sum_hessian":[3.99E2,2.8E1,3.71E2,1.8E1,1E1,3.1E1,3.4E2],"tree_param":{"num_deleted":"0","num_feature":"3","num_nodes":"7","size_leaf_vector":"1"}},{"base_weights":[1.3083137E-3,-3.8386285E-3,2.257413E-3,-6.2070008E-6,-1.0358954E-3,2.6243753E-4,-1.0877862E-3],"categories":[],"categories_nodes":[],"categories_segments":[],"categories_sizes":[],"default_left":[0,0,0,0,0,0,0],"id":39,"left_children":[1,3,5,-1,-1,-1,-1],"loss_changes":[1.879605E-3,1.4768203E-3,1.5902763E-3,0E0,0E0,0E0,0E0],"parents":[2147483647,0,0,1,1,2,2],"right_children":[2,4,6,-1,-1,-1,-1],"split_conditions":[-2.0721165E-2,8.02202E-3,5.5182677E-2,-6.2070008E-6,-1.0358954E-3,2.6243753E-4,-1.0877862E-3],"split_indices":[1,0,0,0,0,0,0],"split_type":[0,0,0,0,0,0,0],"sum_hessian":[3.82E2,5.9E1,3.23E2,3.8E1,2.1E1,3.15E2,8E0],"tree_param":{"num_deleted":"0","num_feature":"3","num_nodes":"7","size_leaf_vector":"1"}},{"base_weights":[-7.5826276E-4,-1.1349504E-3,7.684259E-3,2.1426407E-4,-2.1334752E-4,2.3296326E-3,-5.5738207E-4],"categories":[],"categories_nodes":[],"categories_segments":[],"categories_sizes":[],"default_left":[0,0,0,0,0,0,0],"id":40,"left_children":[1,3,5,-1,-1,-1,-1],"loss_changes":[1.2648976E-3,1.2449456E-3,3.648612E-3,0E0,0E0,0E0,0E0],"parents":[2147483647,0,0,1,1,2,2],"right_children":[2,4,6,-1,-1,-1,-1],"split_conditions":[4.7008738E-2,-1.3014012E-2,5.5182677E-2,2.1426407E-4,-2.1334752E-4,2.3296326E-3,-5.5738207E-4],"split_indices":[0,1,0,0,0,0,0],"split_type":[0,0,0,0,0,0,0],"sum_hessian":[3.94E2,3.78E2,1.6E1,8.8E1,2.9E2,7E0,9E0],"tree_param":{"num_deleted":"0","num_feature":"3","num_nodes":"7","size_leaf_vector":"1"}},{"base_weights":[6.6433204E-5,2.3863933E-3,-1.10008594E-4,-5.018421E-4,6.7565175E-5],"categories":[],"categories_nodes":[],"categories_segments":[],"categories_sizes":[],"default_left":[0,0,0,0,0],"id":41,"left_children":[1,-1,3,-1,-1],"loss_changes":[1.7115668E-3,0E0,1.56521E-3,0E0,0E0],"parents":[2147483647,0,0,2,2],"right_children":[2,-1,4,-1,-1],"split_conditions":[-6.625618E-2,2.3863933E-3,-2.1841384E-2,-5.018421E-4,6.7565175E-5],"split_indices":[0,0,1,0,0],"split_type":[0,0,0,0,0],"sum_hessian":[4.06E2,2E0,4.04E2,5.5E1,3.49E2],"tree_param":{"num_deleted":"0","num_feature":"3","num_nodes":"5","size_leaf_vector":"1"}},{"base_weights":[-6.5717107E-4,2.439337E-3,-7.792548E-4,-4.8045655E-5,-9.752215E-4],"categories":[],"categories_nodes":[],"categories_segments":[],"categories_sizes":[],"default_left":[0,0,0,0,0],"id":42,"left_children":[1,-1,3,-1,-1],"loss_changes":[1.2606637E-3,0E0,1.0811621E-3,0E0,0E0],"parents":[2147483647,0,0,2,2],"right_children":[2,-1,4,-1,-1],"split_conditions":[-7.674783E-2,2.439337E-3,5.5182677E-2,-4.8045655E-5,-9.752215E-4],"split_indices":[0,0,0,0,0],"split_type":[0,0,0,0,0],"sum_hessian":[4.05E2,1E0,4.04E2,3.92E2,1.2E1],"tree_param":{"num_deleted":"0","num_feature":"3","num_nodes":"5","size_leaf_vector":"1"}},{"base_weights":[-3.9931652E-4,8.135739E-3,-9.003109E-4,-3.809476E-5,1.8393857E-3,-9.305269E-4,-4.740097E-5],"categories":[],"categories_nodes":[],"categories_segments":[],"categories_sizes":[],"default_left":[0,0,0,0,0,0,0],"id":43,"left_children":[1,3,5,-1,-1,-1,-1],"loss_changes":[1.6963505E-3,1.9290409E-3,1.3356475E-3,0E0,0E0,0E0,0E0],"parents":[2147483647,0,0,1,1,2,2],"right_children":[2,4,6,-1,-1,-1,-1],"split_conditions":[-3.8024623E-2,-4.839572E-2,-3.0841395E-2,-3.809476E-5,1.8393857E-3,-9.305269E-4,-4.740097E-5],"split_indices":[0,0,0,0,0,0,0],"split_type":[0,0,0,0,0,0,0],"sum_hessian":[3.94E2,2.1E1,3.73E2,1.2E1,9E0,1.7E1,3.56E2],"tree_param":{"num_deleted":"0","num_feature":"3","num_nodes":"7","size_leaf_vector":"1"}},{"base_weights":[-7.4373995E-5,1.676616E-2,-3.9106584E-4,2.1464438E-3,-5.7117525E-4,-1.5586119E-3,-1.4289626E-6],"categories":[],"categories_nodes":[],"categories_segments":[],"categories_sizes":[],"default_left":[0,0,0,0,0,0,0],"id":44,"left_children":[1,3,5,-1,-1,-1,-1],"loss_changes":[2.0225288E-3,8.6185173E-4,2.1295273E-3,0E0,0E0,0E0,0E0],"parents":[2147483647,0,0,1,1,2,2],"right_children":[2,4,6,-1,-1,-1,-1],"split_conditions":[-5.8996983E-2,9.458295E-2,-4.839572E-2,2.1464438E-3,-5.7117525E-4,-1.5586119E-3,-1.4289626E-6],"split_indices":[0,1,0,0,0,0,0],"split_type":[0,0,0,0,0,0,0],"sum_hessian":[3.77E2,6E0,3.71E2,5E0,1E0,8E0,3.63E2],"tree_param":{"num_deleted":"0","num_feature":"3","num_nodes":"7","size_leaf_vector":"1"}},{"base_weights":[3.3693657E-5,1.0801265E-3,-4.2061326E-3,3.4827048E-5,1.8111212E-3,-9.5909135E-4,-4.5040662E-5],"categories":[],"categories_nodes":[],"categories_segments":[],"categories_sizes":[],"default_left":[0,0,0,0,0,0,0],"id":45,"left_children":[1,3,5,-1,-1,-1,-1],"loss_changes":[1.7481637E-3,3.932412E-3,1.5731337E-3,0E0,0E0,0E0,0E0],"parents":[2147483647,0,0,1,1,2,2],"right_children":[2,4,6,-1,-1,-1,-1],"split_conditions":[2.194618E-2,1.8176148E-2,3.3178132E-2,3.4827048E-5,1.8111212E-3,-9.5909135E-4,-4.5040662E-5],"split_indices":[2,2,2,0,0,0,0],"split_type":[0,0,0,0,0,0,0],"sum_hessian":[3.92E2,3.15E2,7.7E1,3.03E2,1.2E1,3.1E1,4.6E1],"tree_param":{"num_deleted":"0","num_feature":"3","num_nodes":"7","size_leaf_vector":"1"}},{"base_weights":[3.798898E-4,5.79371E-4,-1.1244291E-2,2.5844569E-5,7.907695E-4,1.005476E-3,-1.6469926E-3],"categories":[],"categories_nodes":[],"categories_segments":[],"categories_sizes":[],"default_left":[0,0,0,0,0,0,0],"id":46,"left_children":[1,3,5,-1,-1,-1,-1],"loss_changes":[9.618626E-4,9.528051E-4,9.447087E-4,0E0,0E0,0E0,0E0],"parents":[2147483647,0,0,1,1,2,2],"right_children":[2,4,6,-1,-1,-1,-1],"split_conditions":[8.1309095E-2,4.663159E-2,-1.3228926E-2,2.5844569E-5,7.907695E-4,1.005476E-3,-1.6469926E-3],"split_indices":[0,0,2,0,0,0,0],"split_type":[0,0,0,0,0,0,0],"sum_hessian":[4.11E2,4.05E2,6E0,3.89E2,1.6E1,1E0,5E0],"tree_param":{"num_deleted":"0","num_feature":"3","num_nodes":"7","size_leaf_vector":"1"}},{"base_weights":[-8.954961E-5,6.606476E-4,-7.470713E-3,2.9421497E-5,2.7644532E-3,-9.3389204E-4,7.0243055E-5],"categories":[],"categories_nodes":[],"categories_segments":[],"categories_sizes":[],"default_left":[0,0,0,0,0,0,0],"id":47,"left_children":[1,3,5,-1,-1,-1,-1],"loss_changes":[2.2807773E-3,3.6898945E-3,5.867868E-4,0E0,0E0,0E0,0E0],"parents":[2147483647,0,0,1,1,2,2],"right_children":[2,4,6,-1,-1,-1,-1],"split_conditions":[3.7133142E-2,3.630049E-2,6.489263E-2,2.9421497E-5,2.7644532E-3,-9.3389204E-4,7.0243055E-5],"split_indices":[1,1,1,0,0,0,0],"split_type":[0,0,0,0,0,0,0],"sum_hessian":[4.1E2,3.73E2,3.7E1,3.69E2,4E0,3E1,7E0],"tree_param":{"num_deleted":"0","num_feature":"3","num_nodes":"7","size_leaf_vector":"1"}},{"base_weights":[-2.0891042E-4,3.2856813E-4,-4.946936E-3,-2.3637525E-5,1.791466E-3,-3.1883444E-3,-2.6901867E-4],"categories":[],"categories_nodes":[],"categories_segments":[],"categories_sizes":[],"default_left":[0,0,0,0,0,0,0],"id":48,"left_children":[1,3,5,-1,-1,-1,-1],"loss_changes":[9.998875E-4,3.5113413E-3,2.3457855E-3,0E0,0E0,0E0,0E0],"parents":[2147483647,0,0,1,1,2,2],"right_children":[2,4,6,-1,-1,-1,-1],"split_conditions":[3.7133142E-2,3.101295E-2,-5.8996983E-2,-2.3637525E-5,1.791466E-3,-3.1883444E-3,-2.6901867E-4],"split_indices":[1,1,2,0,0,0,0],"split_type":[0,0,0,0,0,0,0],"sum_hessian":[3.91E2,3.52E2,3.9E1,3.42E2,1E1,2E0,3.7E1],"tree_param":{"num_deleted":"0","num_feature":"3","num_nodes":"7","size_leaf_vector":"1"}},{"base_weights":[-5.351144E-4,5.125713E-4,-3.2840306E-3,-1.3825546E-4,5.1783165E-4,1.1336546E-3,-4.3564892E-4],"categories":[],"categories_nodes":[],"categories_segments":[],"categories_sizes":[],"default_left":[0,0,0,0,0,0,0],"id":49,"left_children":[1,3,5,-1,-1,-1,-1],"loss_changes":[1.1796033E-3,2.633285E-3,1.8212226E-3,0E0,0E0,0E0,0E0],"parents":[2147483647,0,0,1,1,2,2],"right_children":[2,4,6,-1,-1,-1,-1],"split_conditions":[1.3118686E-2,2.1916153E-3,-4.1796938E-2,-1.3825546E-4,5.1783165E-4,1.1336546E-3,-4.3564892E-4],"split_indices":[2,2,0,0,0,0,0],"split_type":[0,0,0,0,0,0,0],"sum_hessian":[4.08E2,2.96E2,1.12E2,2.11E2,8.5E1,7E0,1.05E2],"tree_param":{"num_deleted":"0","num_feature":"3","num_nodes":"7","size_leaf_vector":"1"}}]},"name":"gbtree"},"learner_model_param":{"base_score":"2.1405602E-3","boost_from_average":"1","num_class":"0","num_feature":"3","num_target":"1"},"objective":{"name":"reg:squarederror","reg_loss_param":{"scale_pos_weight":"1"}}},"version":[2,1,3]}